{"model_type": "char", "tokens": ["h", "e", "l", "l", "o", " ", "n", "e", "u", "r", "a", "l", " ", "n", "e", "t", "w", "o", "r", "k", ".", " ", "t", "h", "i", "s", " ", "t", "i", "n", "y", " ", "l", "a", "n", "g", "u", "a", "g", "e", " ", "m", "o", "d", "e", "l", " ", "i", "s", " ", "b", "u", "i", "l", "t", " ", "f", "r", "o", "m", " ", "a", " ", "s", "k", "e", "t", "c", "h", " ", "n", "e", "t", "w", "o", "r", "k", ".", " ", "i", "t", " ", "l", "e", "a", "r", "n", "s", " ", "n", "e", "x", "t", " ", "c", "h", "a", "r", "a", "c", "t", "e", "r", " ", "p", "r", "o", "b", "a", "b", "i", "l", "i", "t", "i", "e", "s", " ", "a", "n", "d", " ", "p", "a", "i", "n", "t", "s", " ", "p", "r", "e", "d", "i", "c", "t", "i", "o", "n", "s", " ", "o", "n", " ", "s", "c", "r", "e", "e", "n", ".", " "], "vocab": [" ", ".", "a", "b", "c", "d", "e", "f", "g", "h", "i", "k", "l", "m", "n", "o", "p", "r", "s", "t", "u", "w", "x", "y"], "weights": [[-3.678823239252434, 4.521969524545272, -0.03369230249054198, -1.4696290203016893, -1.7257184156847911, 1.8080169681209777, -0.6805751299147288, -0.665184927211532, -1.1411589851892263, 1.355363529080375, -2.5673669024884407, -1.355211120669652, 1.050075702736007, 2.308102021914972, -0.18559310012046423, 0.37911532307754764, -1.2178605586788709, 0.46910440724596925, 3.270465953255122, 1.129761086427041, -1.4989020475806298, -0.8628990101754592, -0.7790589686697895, 3.322797993368217], [-1.395693033218631, -0.21941787429685142, -0.7249333121542365, -0.3663583764515288, -0.2843618269669359, -0.25255016685076775, -1.0499695901953163, 0.011617841293265716, -0.2072029187995813, -0.2211359856196428, -0.7296185099823964, 5.979424579328597, -0.545159112961251, -0.14666227958878794, 2.9762106037875613, -0.6562486980980587, -0.14340046827668396, -0.6128284111944551, -0.24552728227861206, -0.8105893288429995, -0.3105452160143167, -0.006171478759586553, -0.18201283899880785, 0.10072198128793662], [0.7473692724124629, -0.3248635066974773, -1.7896350888715795, 2.7713678941969446, -1.0545991557600656, -0.7063144987052425, 0.533181936893789, -0.31904689463692576, -0.5376627270650576, 2.556194782741092, -1.665897906737981, -0.6483496287062811, 1.5568370885792155, -0.6571822930344798, -1.9688341213806348, -1.5543228431257783, 3.453900200222793, 2.4194950063902607, -1.003674278385933, -1.8161059768148187, 2.8236861172745336, -0.544482398720641, -0.2957420359342781, -0.17616893304524583], [1.655003853566894, -0.028999763484435725, 2.8079356688028576, -0.24510476226160652, -0.40300074337588854, -0.41517373345742625, -1.2061089697358278, -0.18021247905975335, -0.34319958840982434, -0.3224604066270018, -0.7715227766138464, -0.2676095078465332, -0.614059533975734, -0.3278527452272793, -0.9585050184124742, 3.230007643305077, -0.3203773718395112, -0.698805549827099, -0.49061191750504524, -0.8552583847123402, -0.29143606179522275, -0.18813139154855785, -0.26125048605349915, 0.06956494678159386], [0.9041499675622784, -0.09021119953188246, 2.055852588544801, -0.4158109414096023, -0.6750272998405688, -0.4512636700336765, -1.568537251257396, -0.15153457686465885, -0.44520593404117065, -0.49186729754953695, 2.303068990994898, -0.3223642052459127, -0.9668019169631537, -0.16435044629739212, -1.3051579368828394, -0.9800556564823665, -0.48354314853475916, -0.9773150933221918, 3.5431918852763298, 2.136237854174651, -0.534463810950902, -0.17534571031814244, -0.09166745046816797, -0.02640047457079962], [-1.4969112232491246, -0.22509928307200633, -0.8715094790588613, -0.28502313896016596, -0.25048425690930853, -0.17957876766879557, 2.234932481411252, 0.06637042964065466, -0.15203581106069786, -0.232519807698818, -0.7515384225665341, -0.3701281024828995, -0.7063889105788868, -0.053493670995311084, 2.7210842474800434, 3.3013596216618, -0.26769769259601417, -0.6836939387491205, -0.4646528538585089, -0.7745521883833781, -0.42254669832924674, -0.029931918778443416, -0.14232098845497654, -0.12194238052069252], [-3.046928209257774, -0.5364607502103778, -2.1007895584978353, -1.1160417633806439, -1.2497761165238885, 2.557137052483129, 0.0535288663653834, -0.4964548366250314, 2.9259694357097294, 2.111447814007999, 0.924582391475425, 2.832213414093031, 1.124072735710162, -0.6754855632753555, 1.937393831341123, -1.815884667130962, -0.7199950569822245, 1.9325357969688592, -1.2271902371421124, 0.7710039749758392, -1.112338236207162, -0.5318191430671727, -0.5592061982975014, -0.27431386315020423], [3.0419567961892984, -0.22552147996219474, -0.28550580583902685, -0.05296693194252355, -0.10774973922966756, -0.09924601030854636, -0.5863785593004343, 0.1306144890714092, 0.026541062880270243, -0.30252579011233655, -0.36751780454877386, 0.03443109710487147, -0.286351593184849, -0.062484287809042714, -0.4093352477636435, -0.2136529381851935, -0.19843560751287734, -0.16708633014531732, -0.006349328108948175, -0.4266777715662556, 0.0360578772445105, -0.11919843180479175, -0.07287454232838302, -0.11350608763503343], [-1.2033855161764875, -0.2765171499316227, 3.3173233600712644, -0.33045979350382926, -0.3431680768673526, -0.20145139433363668, -0.844429186697909, 0.09451947622100243, -0.3096391851836383, -0.1379272418439742, -0.4902849273087797, -0.1412969797295752, -0.6125271814083794, 0.010314869257066808, 3.163718361881463, -0.5473984229128604, -0.19756604904970285, -0.43536044217571046, -0.44004336051253806, -0.7410071894538875, -0.3005633372915251, 0.009730385258490303, -0.16250764553501085, 0.12427134505012327], [-1.362690118199503, -0.19450181133079705, -0.6748015981014313, -0.221727482453047, 5.391861255235371, -0.20451860636780494, -1.0662218750300916, -0.1250470873887396, -0.19837084385955622, -0.3635095589132226, -0.7157375700031052, -0.3912744755716847, -0.7045175801220341, -0.06432876448998319, -0.7994076350753657, -0.6649879071366469, -0.18711686999880378, -0.5582300951098011, -0.43756891856120106, 3.212468106951409, -0.3187185388193179, -0.201449704437838, -0.07751249219741349, -0.055219578504947485], [0.6964279421197289, -0.4165510108077886, 1.1525839369301103, 2.85434240719429, -1.0050442141531712, 3.001759314272338, -2.23682912594694, -0.4819868266546381, -0.5342271493605117, 2.533209414547651, -1.6927102631934274, -0.652791244738758, 1.5705944182398714, -0.5929872228139378, -1.9215905500220887, -1.5732347497395165, -0.551264000149003, -1.549546808201139, -0.9212501968545256, 2.383985594498373, 2.8484327556161206, -0.49375483126495073, -0.4820179958380985, -0.4480616851349168], [-1.3621670571633597, -0.23432439837780125, -0.8149815481667675, -0.17304104202816273, -0.4615375701966553, -0.09334585578103383, -1.0649931295073614, -0.23821745240282352, -0.09341529614690995, -0.41176582383135485, -0.7975062564505767, -0.2375975459835411, -0.48424900215000594, -0.15882889187982957, -0.789057339829605, -0.5458123886297631, -0.08258826793629936, 4.392986683937289, 4.581887290256581, -0.7650299418579924, -0.27812061436954433, 0.014959995626686404, 0.020451638976512206, -0.08735441274027826], [1.6124103583695284, -0.23592884859072324, 2.061722528803064, -0.43212956260147734, -0.5701483959168409, -0.395926261172083, 2.131417491067635, -0.14145101912841065, -0.2489706099979483, -0.6810373785122275, 3.0595990088241836, -0.38881107266127884, 2.4786506296050583, -0.38810074570281816, -1.3817655095044805, -1.1242391627706594, -0.2584562002939359, -1.0961376704640557, -0.6577984848981469, -1.2523358395957964, -0.6331784106717542, -0.11929988072993235, -0.12418049730623319, -0.19068509355283966], [2.2273785959086103, -0.22409287731495328, -0.6606364678120862, -0.282012792129946, -0.42025374398894316, -0.347016803832829, -0.8015873150217468, -0.12727265070295748, -0.0640959473852093, -0.35272703109472975, -0.46874312281577313, -0.03302350554174408, -0.5622303879049695, -0.16113436374000834, -0.645534407067962, 3.8073054819835805, -0.05788415742709972, -0.38579572527615447, -0.29964384450761705, -0.5839528317285821, -0.06991437412647696, -0.1013728334202238, -0.13015743520702894, -0.1419836688564524], [1.9670925264096297, -0.3046541058469292, 2.4174536483259548, -0.6192111830855253, -0.7747878543943979, -0.7164805450526027, 1.0498485641479034, -0.27920798931985513, -0.48870299765760017, -0.8553150198615752, 2.639901459944031, -0.656513874377636, -1.312808770282616, -0.5616668612680868, -1.6628509296933742, 2.8401999238002658, -0.39351834512077294, 2.2101380874656873, -0.7652774691379679, -1.5390417010103148, -0.651370621485402, -0.31609777255964644, -0.13266612315595858, -0.1986813687699323], [0.3830750769262501, -0.24367117305799954, -1.5807474080437467, -0.7482658847030059, -0.9145043887022594, -0.5660730637031186, -1.9757511764753761, -0.1269812150101567, -0.49992380328801134, -0.899784003060266, 1.7748572352889758, -0.684124279960906, 1.9442998691744284, 3.8707034868556467, -1.7327693567996676, -1.306500039166502, -0.5698824057023281, 2.7723089140852726, -0.9167459569260149, -1.5957384872171252, -0.7826740597043843, 5.383450831568867, -0.20837025493134684, -0.24396621065590726], [4.1321530997921805, -0.02026677167234028, -0.5954492234896274, -0.017474176304998305, -0.06974876266201518, -0.08851962018578051, -0.6714688133240044, 0.054322460561610185, -0.16608311204294082, -0.2975733420221344, -0.49193988076223744, -0.02808120273950535, -0.2880912495158539, -0.013368424767740434, -0.5301224071371536, -0.4536281338928714, -0.11870814060664472, -0.2607363873101873, -0.18403609614336613, -0.5207270108261675, -0.20828557735935624, -0.23671138296152772, -0.23943969555839817, 0.027113165705088323], [-2.637736232671767, -0.4112296772045724, 2.0549605148355448, -0.750463972365873, 2.814028574201347, -0.6536824881124441, 0.6552513974507103, 4.378541913607673, -0.48001211008387695, -0.8856984243053502, -1.5997803995922117, -0.6967780608372514, -1.4277604700128539, -0.4811850940266586, -1.869276145177184, 2.4525040587933793, 4.351676710940241, -1.450111283303745, -0.8818892291087457, -1.7636177060308562, 2.9635007577435224, -0.5103780686321766, -0.22214760381276275, -0.14888526997664508], [1.6475189445100635, -0.2636536478688881, -1.221188931309051, -0.6178132772174799, -0.6629506446442014, -0.5097853550942775, 1.4519689242515355, -0.12024930989061296, -0.2277028910317873, -0.5901978339763074, 3.0750946479454564, -0.3578919644459411, -1.0085387908569403, -0.37678892101554545, 2.656908583784381, -1.050851741705183, -0.40540919590758184, -1.0497165546388947, -0.5812246565755734, 2.1822669802414527, -0.46367156107935475, -0.22632333943526575, -0.04439982610433387, -0.12301365872140019], [0.803787357298735, -0.3117777998689001, -1.732516845313956, -0.7749785022651514, 3.51386012240837, -0.676601568003791, 1.7914950164455792, -0.4640552426946977, -0.47350997497228375, -0.9923105375203976, 2.2441719757214758, -0.676511565678608, 1.6957022881865746, -0.6387878246492334, 1.1438936662705987, -1.4944503643668774, -0.6271431322849998, -1.478549220650086, -0.9938391718100256, -1.7406867420893846, -0.7645430106060762, -0.5032589019227088, 4.381085048016422, -0.2511132682473171], [-1.6998164110452803, -0.3170397835075247, -0.9695267728844441, 4.233155183444185, -0.3447969254031096, -0.42952085618427904, 1.9368728452252737, -0.21959214493672113, 4.815201870713701, -0.43624953365027597, -0.827597374289305, -0.15914108003429675, -0.8078341522707393, -0.08179004737995549, -1.0272082804491736, -0.7702938850387395, -0.22195569725047007, -0.8282216191547128, -0.4414898543065945, -0.948946741309987, -0.4398916917360741, -0.13908699730289711, -0.11455279943435456, 0.06738176079053966], [-1.028897329729057, -0.02756230085157996, -0.5805619866228009, -0.34240758602689225, -0.21807082446973539, -0.042264545886777784, -0.7543634051966182, -0.016362590329157514, -0.1804147043036988, -0.20938736736525576, -0.5143463183935688, -0.30842492875180755, -0.37333328375191593, -0.0016645327203111838, -0.6856045317582918, -0.4972242964483935, -0.13158743879118545, -0.2937391586694824, -0.10175561872462863, 4.820595547960194, -0.10702749503969536, -0.2612904630316282, 0.060763467632357675, -0.15350210314728321], [-0.9263642335608198, 0.08769378122737821, -0.5045075436291524, -0.22117070045155407, -0.2726964750514348, -0.1773039735895963, 3.4287334315143223, 0.0235129419036903, 0.060331683045350894, -0.039036957812899724, -0.3219729947398473, 0.04766927918726778, -0.38107032323216444, -0.18430658600790764, -0.4340202489862996, -0.28222183342621476, 0.0022144709394749744, -0.26078191148072083, -0.30564374857352256, -0.5782035910968466, -0.12139462412250102, -0.174216425299519, -0.15549098872480593, 0.09912483784408425], [-0.8448462274860572, -0.005359751313776054, -0.37091017628662976, 0.03521200402319835, -0.03109503443641817, -0.27538886816615843, -0.591409596469929, -0.21936491386024298, -0.031824520739526796, -0.33857458750553365, -0.43779055034255154, -0.021422690007198535, -0.28567132976751314, -0.2515770752774462, 3.8888814926307, -0.2025090234740306, -0.09627973986125148, -0.2400514111888365, -0.03430650188394063, -0.399650864904105, -0.27463003491822724, -0.02712086602391215, 0.12087320164303562, 0.03543340799244895]], "biases": [2.497003779006592, -0.6433054614234089, 1.4323987111854437, -0.35603172831101715, 0.3930688863085079, -0.39569581229670625, 1.741743976583044, -1.7538736790952785, -0.9222583254715313, -0.6581351998889947, 1.428769691235807, -0.6084430761992365, 0.38025107244596823, -0.9046751366993351, 0.8604811799439326, 0.9272155151832095, -1.6776599783049722, 1.4002189463524233, 0.42008479864969, 1.072098352816188, -0.09594829064872158, -1.484430681322385, -1.6458873324647518, -1.6011946533412615]}